{
  "moments": [
    "tfr",
    "childless_rate",
    "own_rate",
    "own_family_gap",
    "housing_increment_0to1",
    "prime30_55_childless_renter_mean_rooms",
    "prime30_55_childless_owner_share_rooms_ge6",
    "young_childless_renter_liquid_wealth_to_annual_gross_income_2535",
    "prime30_55_childless_owner_minus_renter_mean_rooms",
    "own_rate_2534",
    "prime30_55_parent_3plus_minus_1to2_mean_rooms",
    "old_total_estate_wealth_to_annual_income_median_7684",
    "old_nonhousing_ge_1x_income_share_6575",
    "old_age_own_rate",
    "aggregate_mean_occupied_rooms_18_85"
  ],
  "parameters": [
    "beta_annual",
    "alpha_cons",
    "c_bar_0",
    "c_bar_n",
    "h_bar_0",
    "h_bar_jump",
    "h_bar_n",
    "psi_child",
    "kappa_fert",
    "chi",
    "H0",
    "theta0",
    "theta1",
    "tenure_choice_kappa"
  ],
  "raw_per_unit_coordinate": [
    [
      -0.183610672135881,
      -0.5556616008205673,
      -6.067479945400933,
      -5.46759449406542,
      -0.38962527933454894,
      -1.2733417605247155,
      -0.25949062318835203,
      4.616583912364414,
      1.6474668936775405,
      -0.44868260607948685,
      1.3567668941948607,
      -0.006253549041490558,
      -0.18040214746735117,
      0.11737764211368074
    ],
    [
      -0.053077197265399834,
      0.1979418925733667,
      1.5202168999964154,
      0.963503566244367,
      0.09962340268342973,
      0.3714337669822543,
      0.06307473747639847,
      -1.1078686775448514,
      -0.635308108706556,
      0.1493389363514841,
      -0.3918326161135993,
      0.00413953943287082,
      0.020395731256539484,
      -0.0029758449353267658
    ],
    [
      -0.09501081478142659,
      -0.641942315042221,
      -0.6188087981295776,
      -0.150043143621148,
      -0.0828131482138561,
      -0.42747062308232664,
      -0.07054596251587775,
      -0.44294250149868875,
      -0.39531942803119335,
      12.918300169617213,
      0.8567100360326374,
      0.006456673597643459,
      -0.022070419235187266,
      -0.27664596932260865
    ],
    [
      -0.17744806211907327,
      -1.3715557044232662,
      0.541736666301601,
      0.3158202078935579,
      0.18049713063872375,
      0.563693976801094,
      0.2546438319907529,
      0.9900479267340612,
      0.14070143350961017,
      -1.26593291339544,
      0.5056429411594454,
      0.02297073052461851,
      -0.15593329176571968,
      -0.38657232676191366
    ],
    [
      -0.4208795904016349,
      2.4073205550055876,
      1.2481565024018537,
      0.6785126758730886,
      0.05470269032876729,
      4.175759476449059,
      0.7494085254634242,
      1.0507539675949862,
      1.2379159587234456,
      -6.718135655862212,
      -1.929023065926816,
      0.049340309312084774,
      0.4622566796675276,
      0.03759002292762492
    ],
    [
      1.0545048465591567,
      -7.948942528061309,
      -5.0528048600012365,
      1.9953451349895346,
      0.8198157724724098,
      0.21485394321549833,
      -0.3587309719159215,
      -1.701152437564657,
      -1.2918660278899097,
      -22.70349593765122,
      7.877124307553807,
      -0.1534870117466891,
      0.7230829402740113,
      1.8609357736160792
    ],
    [
      -0.013022515986305105,
      -2.207718897799804,
      -2.2918685508006242,
      -1.3462633869680607,
      0.15203874603355594,
      0.014463437280021196,
      0.1880438123719741,
      0.571411966618729,
      0.9379119224004695,
      -7.303653518298936,
      1.0758711155016476,
      0.004339755996729533,
      -0.3366083209619619,
      -0.283226943477044
    ],
    [
      -0.9834725469517469,
      -1.1076556288214245,
      2.3945788676704383,
      3.002438613999603,
      0.3309067987049996,
      1.5330162520064028,
      0.6533898091197976,
      2.5682861990609873,
      3.890520626443017,
      -32.83575057500671,
      -1.784833443311773,
      0.078728526596894,
      -0.5359556344306848,
      -0.5491575721437991
    ],
    [
      -0.8077325934211732,
      -8.463018311606874,
      -0.866971626582691,
      -3.1690870721913456,
      0.06455586156839388,
      1.205218975235045,
      1.0610104888992389,
      3.59297702512662,
      4.205958312231317,
      -10.293519448526034,
      2.9867169275762606,
      0.15951515508247915,
      -1.3377631575345106,
      -2.7629476248236085
    ],
    [
      -0.025309717837695977,
      -0.1391832266119608,
      -0.8364385363363869,
      -0.16033281860643456,
      -0.16877797630261426,
      -0.5758425914925924,
      -0.2726699921452136,
      -0.625067734658924,
      -0.8439929249467182,
      15.194370267684064,
      0.9221720592393678,
      -0.005880176438455287,
      0.18150537678748302,
      0.09304458287017758
    ],
    [
      0.44455435036692137,
      -6.573145670015279,
      7.272649092182526,
      7.5734266938392025,
      0.6740443072176916,
      1.3237480948490088,
      1.3497669816269209,
      0.433140803987353,
      -1.25061328264513,
      0.3166886742322461,
      4.563649398162983,
      -0.0566561354597539,
      0.23389412801240184,
      -1.0697047639508739
    ],
    [
      -4.2179352288376215,
      -14.695720517914168,
      -3.2338203956071787,
      -0.12972498650416497,
      0.7802269446697707,
      -6.667783671896288,
      -3.692766393321101,
      3.859833628389353,
      4.162600293173213,
      6.0360018132749715,
      -0.43338724965087394,
      4.205132329217953,
      -8.040211357685934,
      -4.215571789594197
    ],
    [
      -0.4959209558555555,
      4.194341338926466,
      2.1282889294847007,
      0.29934114967500314,
      -0.12644374669354974,
      -0.010858307178507332,
      -0.012019085477965596,
      0.10000573491172338,
      0.1083457401583332,
      -2.439180610570024,
      0.1434305406121994,
      0.010574408166574845,
      -0.009077150834291281,
      -0.11590771726378568
    ],
    [
      -0.08230522142342878,
      -0.10308466964057406,
      -0.16589538521296632,
      0.05495182831283252,
      -0.040245691470963685,
      -0.09220429379011019,
      -0.0255818485685122,
      -0.07935759719379654,
      -0.0481821382193548,
      3.262871355604857,
      0.30721946608759376,
      0.05897732491012553,
      -0.031453116303725714,
      -0.08484344507725394
    ],
    [
      -0.18932428640443533,
      -13.746986364858849,
      -5.76979134125013,
      -0.1298662975930398,
      0.7368441545773763,
      0.8713574694658277,
      0.24220603485467507,
      -0.09081557805759033,
      0.15006709941447482,
      -1.3364780664852915,
      10.74280367641629,
      0.1841406155540959,
      -0.08237063656526544,
      -0.19373075835886766
    ]
  ],
  "smm_weighted": [
    [
      -0.8211318885805129,
      -2.484994223842283,
      -27.134595220066398,
      -24.4518259242677,
      -1.742457220688791,
      -5.694557470245044,
      -1.1604773459458768,
      20.64599090375752,
      7.367695929886798,
      -2.006569615030986,
      6.067646010081947,
      -0.027966721514803082,
      -0.8067829300478775,
      0.5249287736096645
    ],
    [
      -0.23736844228119997,
      0.8852230547780174,
      6.798616657871969,
      4.308918941371752,
      0.4455294010999677,
      1.661102304222275,
      0.28207880132036106,
      -4.9545393462661655,
      -2.8411842354493704,
      0.6678640267388658,
      -1.7523287308631752,
      0.018512583134880165,
      0.09121248308087898,
      -0.013308383131778227
    ],
    [
      -0.9501081478142659,
      -6.41942315042221,
      -6.188087981295776,
      -1.5004314362114801,
      -0.828131482138561,
      -4.274706230823266,
      -0.7054596251587775,
      -4.4294250149868875,
      -3.9531942803119335,
      129.18300169617214,
      8.567100360326375,
      0.06456673597643459,
      -0.22070419235187266,
      -2.7664596932260865
    ],
    [
      -1.1903577881215597,
      -9.200675370054098,
      3.6340800352634983,
      2.1185863605543336,
      1.210811561555539,
      3.7813741519033073,
      1.7082027551470773,
      6.641443395480277,
      0.9438539095774655,
      -8.492136147919675,
      3.391955966326339,
      0.15409234483762918,
      -1.0460323210303724,
      -2.5932060025797004
    ],
    [
      -1.5747872283686681,
      9.0073687369694,
      4.670173997061823,
      2.538761965700295,
      0.20467872534503956,
      15.624261290446908,
      2.8040299450115884,
      3.9315613445338067,
      4.631857391162926,
      -25.136961902106243,
      -7.217743403882387,
      0.18461453280327308,
      1.7296061200636001,
      0.1406489869561496
    ],
    [
      2.582998805361803,
      -19.47085318845916,
      -12.37679367685802,
      4.887577441469181,
      2.008130325643035,
      0.5262825301028825,
      -0.87870783612669,
      -4.166955446725227,
      -3.1644125843663806,
      -55.61198042459621,
      19.294935193981093,
      -0.3759648609239561,
      1.771184245382692,
      4.558343089450864
    ],
    [
      -0.06511257993152553,
      -11.03859448899902,
      -11.45934275400312,
      -6.7313169348403035,
      0.7601937301677797,
      0.07231718640010598,
      0.9402190618598705,
      2.8570598330936448,
      4.6895596120023475,
      -36.51826759149468,
      5.379355577508238,
      0.021698779983647665,
      -1.6830416048098096,
      -1.4161347173852201
    ],
    [
      -3.4068488383391875,
      -3.8370316528167216,
      8.2950645230719,
      10.400752452107985,
      1.146294775854053,
      5.310524074607806,
      2.26340869308644,
      8.89680437030317,
      13.477158785788003,
      -113.74637660114121,
      -6.182844413728192,
      0.27272361614171614,
      -1.8566047788735152,
      -1.9023376326284624
    ],
    [
      -2.798067781469693,
      -29.316755402177762,
      -3.003277811923706,
      -10.978039645290217,
      0.22362806432568252,
      4.1750009987063885,
      3.6754481482739516,
      12.446437515893969,
      14.56986698260257,
      -35.65779734709092,
      10.346290932776196,
      0.5525767063601654,
      -4.63414751468708,
      -9.571131329692484
    ],
    [
      -0.2263769983057088,
      -1.2448926241284084,
      -7.4813337049943565,
      -1.434060325712523,
      -1.5095961124699766,
      -5.150492715668316,
      -2.4388345514441254,
      -5.590775780956622,
      -7.54890221083896,
      135.90257917537298,
      8.248157645640758,
      -0.052593896944314524,
      1.6234334431140978,
      0.8322160489433184
    ],
    [
      1.2573895830017219,
      -18.591663507979185,
      20.570157961089812,
      21.420885488131663,
      1.9064852018152731,
      3.744125017802029,
      3.817717542920376,
      1.225107198832202,
      -3.5372685312013594,
      0.8957308362983948,
      12.90794974559581,
      -0.1602477503176624,
      0.6615524959891351,
      -3.0255819698288726
    ],
    [
      -18.18403064473389,
      -63.35503457169929,
      -13.941392170095412,
      -0.5592601597700443,
      3.363653043963893,
      -28.745624587419677,
      -15.919964062250282,
      16.640211187299013,
      17.945475021838927,
      26.021936324164173,
      -1.8683850275387468,
      18.128835790760363,
      -34.662326893670496,
      -18.173841571337135
    ],
    [
      -48.171228689388094,
      407.4168946747033,
      206.73111617642886,
      29.076470366658317,
      -12.282099730611355,
      -1.0547204995060737,
      -1.167472574732291,
      9.714046300729606,
      10.524151813032567,
      -236.9295461688719,
      13.932110130238659,
      1.0271439995275682,
      -0.8817080696506664,
      -11.258683645554617
    ],
    [
      -1.041087852090083,
      -1.3039293916408996,
      -2.0984290823359646,
      0.6950917562363141,
      -0.5090722042266302,
      -1.16630231369627,
      -0.3235876329360663,
      -1.0038030270823346,
      -0.6094611972408429,
      41.272420783330226,
      3.886053017510619,
      0.7460107080791282,
      -0.39785394811979863,
      -1.073194123918092
    ],
    [
      -0.463747897607409,
      -33.67310209490196,
      -14.133044708391388,
      -0.3181061638873787,
      1.8048921986670257,
      2.134381183754051,
      0.5932811980167114,
      -0.22245182693699256,
      0.36758782074497953,
      -3.2736893153104156,
      26.314387414115117,
      0.4510505490295384,
      -0.20176602937313867,
      -0.47454150546165275
    ]
  ],
  "target_scaled": [
    [
      -0.09573027744310793,
      -0.2897088638271988,
      -3.1634410559963158,
      -2.8506749186993847,
      -0.20314143865200676,
      -0.6638903860921354,
      -0.13529229571864027,
      2.4069780564986516,
      0.8589504138047657,
      -0.2339325370591694,
      0.7073862847731287,
      -0.003260453097753159,
      -0.09405742829371803,
      0.06119793645134554
    ],
    [
      -0.28232551736914807,
      1.052882407305142,
      8.086260106363913,
      5.12501896938493,
      0.5299117164012219,
      1.9757115265013525,
      0.33550392274680035,
      -5.8929184975789966,
      -3.379298450566787,
      0.7943560444227877,
      -2.084216043157443,
      0.02201882677058947,
      0.10848793221563556,
      -0.015828962421950882
    ],
    [
      -0.16510055587447986,
      -1.1155049380077509,
      -1.0753057616256139,
      -0.2607303860512583,
      -0.1439046369118827,
      -0.7428168851436798,
      -0.1225879143639184,
      -0.7697024111002797,
      -0.6869476644956677,
      22.448165967882304,
      1.4887074013376893,
      0.011219779585338345,
      -0.03835182860493219,
      -0.4807284667610887
    ],
    [
      -1.0583698833434814,
      -8.180496498831642,
      3.23113008657018,
      1.8836756659620406,
      1.0765557246252153,
      3.3620921037055993,
      1.5187957509355172,
      5.90503438701321,
      0.839198568817847,
      -7.550520720659885,
      3.015852944560587,
      0.1370064518897999,
      -0.930047349317943,
      -2.3056690701095466
    ],
    [
      -0.6334401400240522,
      3.6231109899873037,
      1.878524042705137,
      1.0211879459467228,
      0.08232967483284291,
      6.284680292870719,
      1.1278889547762825,
      1.5814255562476687,
      1.863111626495116,
      -10.111055246202326,
      -2.903254681046093,
      0.07425908300673831,
      0.6957142673899416,
      0.05657444535160232
    ],
    [
      0.2771156398274172,
      -2.088920028962146,
      -1.3278376635927347,
      0.5243611213010481,
      0.21544118367080006,
      0.05646193864151793,
      -0.09427169835469791,
      -0.44704957755095,
      -0.3394923049032502,
      -5.966301457608747,
      2.0700467613881344,
      -0.040335188220489565,
      0.19002055068419427,
      0.48903939063538426
    ],
    [
      -0.02184505312573701,
      -3.703411588040906,
      -3.844571225874979,
      -2.2583343526304427,
      0.25504245782967333,
      0.024262174536402656,
      0.31544035542377674,
      0.9585340329468607,
      1.5733315891988149,
      -12.251756825409377,
      1.8047558320754125,
      0.007279868222161481,
      -0.564654837952365,
      -0.4751084685480671
    ],
    [
      -5.487345370558456,
      -6.180232489280126,
      13.360699599267193,
      16.75229032064178,
      1.8463147706443188,
      8.553558164395763,
      3.645628498076935,
      14.329910304428605,
      21.707398355697798,
      -183.2090834309945,
      -9.958587621719653,
      0.4392706408443862,
      -2.990397320731958,
      -3.0640583415881033
    ],
    [
      -0.33394467235149006,
      -3.49890533103766,
      -0.35843614351492614,
      -1.310210523378566,
      0.02668963245436907,
      0.49827933040558114,
      0.43865853992126747,
      1.485461333608342,
      1.738889060491013,
      -4.255697996563735,
      1.2348123796287536,
      0.06594909829439015,
      -0.5530776929956266,
      -1.1422983878712223
    ],
    [
      -0.07418591290153127,
      -0.4079632492548155,
      -2.4517047879418112,
      -0.46995531884905256,
      -0.49470912042464205,
      -1.6878658470793286,
      -0.7992294666366567,
      -1.8321508291135382,
      -2.473847635170067,
      44.53657826217156,
      2.703000345782806,
      -0.01723552431150261,
      0.5320147051762473,
      0.2727251787250532
    ],
    [
      1.2090151856740037,
      -17.876403472683513,
      19.778781121520176,
      20.596779387904,
      1.8331387434870108,
      3.600080726594029,
      3.6708419939235797,
      1.177974772091495,
      -3.4011824400674753,
      0.8612702045581933,
      12.411354022105696,
      -0.15408268544871878,
      0.6361011929667859,
      -2.909181526931389
    ],
    [
      -0.6487817812924735,
      -2.2604225095263426,
      -0.4974101409376397,
      -0.019953651077166477,
      0.12001062119551223,
      -1.0256052625819683,
      -0.568002927635302,
      0.5937003773311,
      0.6402704371915465,
      0.9284277249037607,
      -0.06666146741552163,
      0.6468125030626496,
      -1.236705251172142,
      -0.6484182488437431
    ],
    [
      -0.8152127897250319,
      6.894809875631041,
      3.4985582582468484,
      0.49206779996837663,
      -0.20785280046797852,
      -0.017849277757200747,
      -0.019757407076158726,
      0.16439304123626042,
      0.17810264326685193,
      -4.009613239181533,
      0.2357763062109784,
      0.017382594301329463,
      -0.01492134858792457,
      -0.19053329452121892
    ],
    [
      -0.10769256138178661,
      -0.13488150473073884,
      -0.2170664101988177,
      0.0719019163216362,
      -0.05265961896623307,
      -0.1206450380294969,
      -0.03347266126714831,
      -0.1038357319147104,
      -0.0630440911032717,
      4.269315696711369,
      0.40198240934322965,
      0.07716909174378685,
      -0.04115494253713586,
      -0.11101370920099968
    ],
    [
      -0.03275523413068119,
      -2.378383489640263,
      -0.9982388940006459,
      -0.022468332320861095,
      0.12748233868658265,
      0.15075465734438612,
      0.04190437228207057,
      -0.015712117966920465,
      0.025963298581423714,
      -0.231225759830569,
      1.858626044887153,
      0.03185840068377441,
      -0.014251047963412845,
      -0.03351760341408829
    ]
  ]
}